<?xml version="1.0"?>
<opencv_storage>
<cascade>
  <stageType>BOOST</stageType>
  <featureType>HAAR</featureType>
  <height>20</height>
  <width>80</width>
  <stageParams>
    <boostType>GAB</boostType>
    <minHitRate>9.9000000953674316e-01</minHitRate>
    <maxFalseAlarm>2.5000000000000000e-01</maxFalseAlarm>
    <weightTrimRate>9.4999999999999996e-01</weightTrimRate>
    <maxDepth>1</maxDepth>
    <maxWeakCount>150</maxWeakCount></stageParams>
  <featureParams>
    <maxCatCount>0</maxCatCount>
    <featSize>1</featSize>
    <mode>ALL</mode></featureParams>
  <stageNum>8</stageNum>
  <stages>
    <!-- stage 0 -->
    <_>
      <maxWeakCount>2</maxWeakCount>
      <stageThreshold>2.4955214932560921e-02</stageThreshold>
      <weakClassifiers>
        <_>
          <internalNodes>
            0 -1 9 2.0224433392286301e-02</internalNodes>
          <leafValues>
            -9.0417939424514771e-01 9.7034293413162231e-01</leafValues></_>
        <_>
          <internalNodes>
            0 -1 2 1.2766874395310879e-02</internalNodes>
          <leafValues>
            -8.6877840757369995e-01 9.2913460731506348e-01</leafValues></_></weakClassifiers></_>
    <!-- stage 1 -->
    <_>
      <maxWeakCount>2</maxWeakCount>
      <stageThreshold>-7.2602279484272003e-02</stageThreshold>
      <weakClassifiers>
        <_>
          <internalNodes>
            0 -1 5 -3.8166344165802002e-02</internalNodes>
          <leafValues>
            8.8203269243240356e-01 -8.4759914875030518e-01</leafValues></_>
        <_>
          <internalNodes>
            0 -1 1 1.9938694313168526e-03</internalNodes>
          <leafValues>
            -9.2047673463821411e-01 7.7499687671661377e-01</leafValues></_></weakClassifiers></_>
    <!-- stage 2 -->
    <_>
      <maxWeakCount>4</maxWeakCount>
      <stageThreshold>-1.2742340564727783e+00</stageThreshold>
      <weakClassifiers>
        <_>
          <internalNodes>
            0 -1 14 3.2383508980274200e-02</internalNodes>
          <leafValues>
            -7.2789114713668823e-01 8.8166826963424683e-01</leafValues></_>
        <_>
          <internalNodes>
            0 -1 26 -1.2087781215086579e-03</internalNodes>
          <leafValues>
            7.9757672548294067e-01 -7.7104341983795166e-01</leafValues></_>
        <_>
          <internalNodes>
            0 -1 12 -3.4173853695392609e-02</internalNodes>
          <leafValues>
            8.2442259788513184e-01 -7.0563060045242310e-01</leafValues></_>
        <_>
          <internalNodes>
            0 -1 22 -3.4333549439907074e-02</internalNodes>
          <leafValues>
            7.8147965669631958e-01 -6.7922830581665039e-01</leafValues></_></weakClassifiers></_>
    <!-- stage 3 -->
    <_>
      <maxWeakCount>4</maxWeakCount>
      <stageThreshold>-3.1415542960166931e-01</stageThreshold>
      <weakClassifiers>
        <_>
          <internalNodes>
            0 -1 10 3.3425431698560715e-02</internalNodes>
          <leafValues>
            -6.9447046518325806e-01 9.0735143423080444e-01</leafValues></_>
        <_>
          <internalNodes>
            0 -1 8 -4.0298707783222198e-02</internalNodes>
          <leafValues>
            7.2079026699066162e-01 -7.8850990533828735e-01</leafValues></_>
        <_>
          <internalNodes>
            0 -1 24 -1.3213665224611759e-02</internalNodes>
          <leafValues>
            6.7152112722396851e-01 -6.4812678098678589e-01</leafValues></_>
        <_>
          <internalNodes>
            0 -1 7 1.0241564596071839e-03</internalNodes>
          <leafValues>
            -8.9362978935241699e-01 4.9730387330055237e-01</leafValues></_></weakClassifiers></_>
    <!-- stage 4 -->
    <_>
      <maxWeakCount>4</maxWeakCount>
      <stageThreshold>-1.8364435434341431e-01</stageThreshold>
      <weakClassifiers>
        <_>
          <internalNodes>
            0 -1 11 -2.0244799554347992e-02</internalNodes>
          <leafValues>
            7.9189687967300415e-01 -7.1868580579757690e-01</leafValues></_>
        <_>
          <internalNodes>
            0 -1 15 2.0252823829650879e-02</internalNodes>
          <leafValues>
            -5.6567513942718506e-01 7.6074635982513428e-01</leafValues></_>
        <_>
          <internalNodes>
            0 -1 28 -2.7757135103456676e-04</internalNodes>
          <leafValues>
            5.5334538221359253e-01 -8.2778441905975342e-01</leafValues></_>
        <_>
          <internalNodes>
            0 -1 19 -2.4341639131307602e-02</internalNodes>
          <leafValues>
            6.0207951068878174e-01 -7.1402519941329956e-01</leafValues></_></weakClassifiers></_>
    <!-- stage 5 -->
    <_>
      <maxWeakCount>4</maxWeakCount>
      <stageThreshold>-2.4707521498203278e-01</stageThreshold>
      <weakClassifiers>
        <_>
          <internalNodes>
            0 -1 3 -3.1815696507692337e-02</internalNodes>
          <leafValues>
            5.9819412231445313e-01 -7.8703701496124268e-01</leafValues></_>
        <_>
          <internalNodes>
            0 -1 21 3.6510795354843140e-02</internalNodes>
          <leafValues>
            -5.9903991222381592e-01 8.0002427101135254e-01</leafValues></_>
        <_>
          <internalNodes>
            0 -1 16 -6.3614815473556519e-02</internalNodes>
          <leafValues>
            6.6075909137725830e-01 -6.5317636728286743e-01</leafValues></_>
        <_>
          <internalNodes>
            0 -1 29 5.6309078354388475e-04</internalNodes>
          <leafValues>
            -8.4286606311798096e-01 4.7824266552925110e-01</leafValues></_></weakClassifiers></_>
    <!-- stage 6 -->
    <_>
      <maxWeakCount>6</maxWeakCount>
      <stageThreshold>-5.0569880008697510e-01</stageThreshold>
      <weakClassifiers>
        <_>
          <internalNodes>
            0 -1 13 1.0910172015428543e-02</internalNodes>
          <leafValues>
            -5.1074379682540894e-01 8.6666667461395264e-01</leafValues></_>
        <_>
          <internalNodes>
            0 -1 27 -6.5147760324180126e-04</internalNodes>
          <leafValues>
            5.6528222560882568e-01 -7.1223807334899902e-01</leafValues></_>
        <_>
          <internalNodes>
            0 -1 17 2.0378507673740387e-02</internalNodes>
          <leafValues>
            -8.1588202714920044e-01 5.3147602081298828e-01</leafValues></_>
        <_>
          <internalNodes>
            0 -1 0 3.5257684066891670e-03</internalNodes>
          <leafValues>
            -6.8110144138336182e-01 4.9057555198669434e-01</leafValues></_>
        <_>
          <internalNodes>
            0 -1 6 -8.9194498956203461e-02</internalNodes>
          <leafValues>
            5.5046302080154419e-01 -7.0552617311477661e-01</leafValues></_>
        <_>
          <internalNodes>
            0 -1 2 2.7734648436307907e-02</internalNodes>
          <leafValues>
            -6.8555116653442383e-01 4.7059535980224609e-01</leafValues></_></weakClassifiers></_>
    <!-- stage 7 -->
    <_>
      <maxWeakCount>6</maxWeakCount>
      <stageThreshold>-1.3590462207794189e+00</stageThreshold>
      <weakClassifiers>
        <_>
          <internalNodes>
            0 -1 3 -3.8128793239593506e-02</internalNodes>
          <leafValues>
            5.3629976511001587e-01 -6.7857140302658081e-01</leafValues></_>
        <_>
          <internalNodes>
            0 -1 4 -7.2834137827157974e-03</internalNodes>
          <leafValues>
            5.5983471870422363e-01 -6.4195728302001953e-01</leafValues></_>
        <_>
          <internalNodes>
            0 -1 20 6.7174874246120453e-02</internalNodes>
          <leafValues>
            -4.6077382564544678e-01 8.0028033256530762e-01</leafValues></_>
        <_>
          <internalNodes>
            0 -1 25 5.6105689145624638e-04</internalNodes>
          <leafValues>
            -9.2115294933319092e-01 4.1097566485404968e-01</leafValues></_>
        <_>
          <internalNodes>
            0 -1 23 -2.3436555638909340e-03</internalNodes>
          <leafValues>
            6.6956204175949097e-01 -5.1125699281692505e-01</leafValues></_>
        <_>
          <internalNodes>
            0 -1 18 1.1742629576474428e-03</internalNodes>
          <leafValues>
            -7.3851650953292847e-01 4.3033936619758606e-01</leafValues></_></weakClassifiers></_></stages>
  <features>
    <_>
      <rects>
        <_>
          0 0 2 18 -1.</_>
        <_>
          1 0 1 18 2.</_></rects>
      <tilted>0</tilted></_>
    <_>
      <rects>
        <_>
          0 0 2 20 -1.</_>
        <_>
          1 0 1 20 2.</_></rects>
      <tilted>0</tilted></_>
    <_>
      <rects>
        <_>
          0 0 80 2 -1.</_>
        <_>
          0 1 80 1 2.</_></rects>
      <tilted>0</tilted></_>
    <_>
      <rects>
        <_>
          0 18 80 2 -1.</_>
        <_>
          0 19 80 1 2.</_></rects>
      <tilted>0</tilted></_>
    <_>
      <rects>
        <_>
          1 0 22 4 -1.</_>
        <_>
          1 0 11 2 2.</_>
        <_>
          12 2 11 2 2.</_></rects>
      <tilted>0</tilted></_>
    <_>
      <rects>
        <_>
          1 3 22 13 -1.</_>
        <_>
          12 3 11 13 2.</_></rects>
      <tilted>0</tilted></_>
    <_>
      <rects>
        <_>
          1 3 36 12 -1.</_>
        <_>
          13 3 12 12 3.</_></rects>
      <tilted>0</tilted></_>
    <_>
      <rects>
        <_>
          4 15 1 4 -1.</_>
        <_>
          4 15 1 2 2.</_></rects>
      <tilted>1</tilted></_>
    <_>
      <rects>
        <_>
          7 3 24 14 -1.</_>
        <_>
          13 3 12 14 2.</_></rects>
      <tilted>0</tilted></_>
    <_>
      <rects>
        <_>
          10 16 70 4 -1.</_>
        <_>
          10 17 70 2 2.</_></rects>
      <tilted>0</tilted></_>
    <_>
      <rects>
        <_>
          13 0 58 4 -1.</_>
        <_>
          13 1 58 2 2.</_></rects>
      <tilted>0</tilted></_>
    <_>
      <rects>
        <_>
          14 7 52 6 -1.</_>
        <_>
          14 9 52 2 3.</_></rects>
      <tilted>0</tilted></_>
    <_>
      <rects>
        <_>
          16 2 56 6 -1.</_>
        <_>
          16 4 56 2 3.</_></rects>
      <tilted>0</tilted></_>
    <_>
      <rects>
        <_>
          21 3 16 2 -1.</_>
        <_>
          25 3 8 2 2.</_></rects>
      <tilted>0</tilted></_>
    <_>
      <rects>
        <_>
          23 16 49 4 -1.</_>
        <_>
          23 17 49 2 2.</_></rects>
      <tilted>0</tilted></_>
    <_>
      <rects>
        <_>
          24 0 30 4 -1.</_>
        <_>
          24 1 30 2 2.</_></rects>
      <tilted>0</tilted></_>
    <_>
      <rects>
        <_>
          25 2 36 6 -1.</_>
        <_>
          37 4 12 2 9.</_></rects>
      <tilted>0</tilted></_>
    <_>
      <rects>
        <_>
          27 13 37 6 -1.</_>
        <_>
          27 16 37 3 2.</_></rects>
      <tilted>0</tilted></_>
    <_>
      <rects>
        <_>
          29 10 37 2 -1.</_>
        <_>
          29 11 37 1 2.</_></rects>
      <tilted>0</tilted></_>
    <_>
      <rects>
        <_>
          40 13 35 6 -1.</_>
        <_>
          40 15 35 2 3.</_></rects>
      <tilted>0</tilted></_>
    <_>
      <rects>
        <_>
          50 3 15 14 -1.</_>
        <_>
          55 3 5 14 3.</_></rects>
      <tilted>0</tilted></_>
    <_>
      <rects>
        <_>
          52 3 12 15 -1.</_>
        <_>
          56 3 4 15 3.</_></rects>
      <tilted>0</tilted></_>
    <_>
      <rects>
        <_>
          56 3 24 14 -1.</_>
        <_>
          62 3 12 14 2.</_></rects>
      <tilted>0</tilted></_>
    <_>
      <rects>
        <_>
          61 15 8 2 -1.</_>
        <_>
          63 15 4 2 2.</_></rects>
      <tilted>0</tilted></_>
    <_>
      <rects>
        <_>
          67 4 12 15 -1.</_>
        <_>
          70 4 6 15 2.</_></rects>
      <tilted>0</tilted></_>
    <_>
      <rects>
        <_>
          77 11 3 9 -1.</_>
        <_>
          78 14 1 3 9.</_></rects>
      <tilted>0</tilted></_>
    <_>
      <rects>
        <_>
          78 0 2 8 -1.</_>
        <_>
          79 0 1 8 2.</_></rects>
      <tilted>0</tilted></_>
    <_>
      <rects>
        <_>
          78 2 2 3 -1.</_>
        <_>
          79 2 1 3 2.</_></rects>
      <tilted>0</tilted></_>
    <_>
      <rects>
        <_>
          78 16 2 4 -1.</_>
        <_>
          79 16 1 4 2.</_></rects>
      <tilted>0</tilted></_>
    <_>
      <rects>
        <_>
          79 0 1 6 -1.</_>
        <_>
          79 3 1 3 2.</_></rects>
      <tilted>0</tilted></_></features></cascade>
</opencv_storage>
