<?xml version="1.0"?>
<opencv_storage>
<stage8>
  <maxWeakCount>5</maxWeakCount>
  <stageThreshold>-2.4336282908916473e-01</stageThreshold>
  <weakClassifiers>
    <_>
      <internalNodes>
        0 -1 740834 -2.9178101569414139e-02</internalNodes>
      <leafValues>
        5.0161117315292358e-01 -7.5335776805877686e-01</leafValues></_>
    <_>
      <internalNodes>
        0 -1 36824 1.9748534541577101e-03</internalNodes>
      <leafValues>
        -8.5085713863372803e-01 3.7488412857055664e-01</leafValues></_>
    <_>
      <internalNodes>
        0 -1 1659891 -9.8558180034160614e-03</internalNodes>
      <leafValues>
        6.6299444437026978e-01 -5.4077541828155518e-01</leafValues></_>
    <_>
      <internalNodes>
        0 -1 38715 -3.5434700293990318e-06</internalNodes>
      <leafValues>
        3.2197794318199158e-01 -9.7073340415954590e-01</leafValues></_>
    <_>
      <internalNodes>
        0 -1 3990 3.8955159834586084e-04</internalNodes>
      <leafValues>
        -7.5981265306472778e-01 3.9165067672729492e-01</leafValues></_></weakClassifiers></stage8>
</opencv_storage>
