<?xml version="1.0"?>
<opencv_storage>
<stage6>
  <maxWeakCount>6</maxWeakCount>
  <stageThreshold>-5.0569880008697510e-01</stageThreshold>
  <weakClassifiers>
    <_>
      <internalNodes>
        0 -1 787350 1.0910172015428543e-02</internalNodes>
      <leafValues>
        -5.1074379682540894e-01 8.6666667461395264e-01</leafValues></_>
    <_>
      <internalNodes>
        0 -1 1794037 -6.5147760324180126e-04</internalNodes>
      <leafValues>
        5.6528222560882568e-01 -7.1223807334899902e-01</leafValues></_>
    <_>
      <internalNodes>
        0 -1 989342 2.0378507673740387e-02</internalNodes>
      <leafValues>
        -8.1588202714920044e-01 5.3147602081298828e-01</leafValues></_>
    <_>
      <internalNodes>
        0 -1 88 3.5257684066891670e-03</internalNodes>
      <leafValues>
        -6.8110144138336182e-01 4.9057555198669434e-01</leafValues></_>
    <_>
      <internalNodes>
        0 -1 52374 -8.9194498956203461e-02</internalNodes>
      <leafValues>
        5.5046302080154419e-01 -7.0552617311477661e-01</leafValues></_>
    <_>
      <internalNodes>
        0 -1 3935 2.7734648436307907e-02</internalNodes>
      <leafValues>
        -6.8555116653442383e-01 4.7059535980224609e-01</leafValues></_></weakClassifiers></stage6>
</opencv_storage>
